digraph Tree {
node [shape=box] ;
0 [label="grade <= 4.5\ngini = 0.5\nsamples = 36952\nvalue = [18476, 18476]"] ;
1 [label="sub_grade <= 8.5\ngini = 0.497\nsamples = 31438\nvalue = [16891, 14547]"] ;
0 -> 1 [labeldistance=2.5, labelangle=45, headlabel="True"] ;
2 [label="total_rec_late_fee <= 0.005\ngini = 0.497\nsamples = 16558\nvalue = [7670, 8888]"] ;
1 -> 2 ;
3 [label="term <= 0.5\ngini = 0.494\nsamples = 15853\nvalue = [7076, 8777]"] ;
2 -> 3 ;
4 [label="revol_util <= 47.05\ngini = 0.488\nsamples = 2457\nvalue = [1415, 1042]"] ;
3 -> 4 ;
5 [label="home_ownership <= 1.5\ngini = 0.499\nsamples = 1135\nvalue = [590, 545]"] ;
4 -> 5 ;
6 [label="gini = 0.492\nsamples = 469\nvalue = [265, 204]"] ;
5 -> 6 ;
7 [label="gini = 0.5\nsamples = 666\nvalue = [325, 341]"] ;
5 -> 7 ;
8 [label="purpose <= 2.5\ngini = 0.469\nsamples = 1322\nvalue = [825, 497]"] ;
4 -> 8 ;
9 [label="gini = 0.318\nsamples = 111\nvalue = [89, 22]"] ;
8 -> 9 ;
10 [label="gini = 0.477\nsamples = 1211\nvalue = [736, 475]"] ;
8 -> 10 ;
11 [label="dti <= 18.235\ngini = 0.488\nsamples = 13396\nvalue = [5661, 7735]"] ;
3 -> 11 ;
12 [label="grade <= 1.5\ngini = 0.472\nsamples = 8115\nvalue = [3092, 5023]"] ;
11 -> 12 ;
13 [label="gini = 0.491\nsamples = 2632\nvalue = [1140, 1492]"] ;
12 -> 13 ;
14 [label="gini = 0.459\nsamples = 5483\nvalue = [1952, 3531]"] ;
12 -> 14 ;
15 [label="dti <= 27.855\ngini = 0.5\nsamples = 5281\nvalue = [2569, 2712]"] ;
11 -> 15 ;
16 [label="gini = 0.497\nsamples = 4312\nvalue = [1999, 2313]"] ;
15 -> 16 ;
17 [label="gini = 0.484\nsamples = 969\nvalue = [570, 399]"] ;
15 -> 17 ;
18 [label="dti <= 14.375\ngini = 0.265\nsamples = 705\nvalue = [594, 111]"] ;
2 -> 18 ;
19 [label="term <= 0.5\ngini = 0.329\nsamples = 327\nvalue = [259, 68]"] ;
18 -> 19 ;
20 [label="dti <= 14.19\ngini = 0.119\nsamples = 63\nvalue = [59, 4]"] ;
19 -> 20 ;
21 [label="gini = 0.092\nsamples = 62\nvalue = [59, 3]"] ;
20 -> 21 ;
22 [label="gini = 0.0\nsamples = 1\nvalue = [0, 1]"] ;
20 -> 22 ;
23 [label="revol_util <= 0.35\ngini = 0.367\nsamples = 264\nvalue = [200, 64]"] ;
19 -> 23 ;
24 [label="gini = 0.49\nsamples = 14\nvalue = [6, 8]"] ;
23 -> 24 ;
25 [label="gini = 0.348\nsamples = 250\nvalue = [194, 56]"] ;
23 -> 25 ;
26 [label="total_rec_late_fee <= 19.441\ngini = 0.202\nsamples = 378\nvalue = [335, 43]"] ;
18 -> 26 ;
27 [label="grade <= 0.5\ngini = 0.262\nsamples = 219\nvalue = [185, 34]"] ;
26 -> 27 ;
28 [label="gini = 0.107\nsamples = 88\nvalue = [83, 5]"] ;
27 -> 28 ;
29 [label="gini = 0.345\nsamples = 131\nvalue = [102, 29]"] ;
27 -> 29 ;
30 [label="revol_util <= 92.9\ngini = 0.107\nsamples = 159\nvalue = [150, 9]"] ;
26 -> 30 ;
31 [label="gini = 0.077\nsamples = 149\nvalue = [143, 6]"] ;
30 -> 31 ;
32 [label="gini = 0.42\nsamples = 10\nvalue = [7, 3]"] ;
30 -> 32 ;
33 [label="total_rec_late_fee <= 0.005\ngini = 0.471\nsamples = 14880\nvalue = [9221, 5659]"] ;
1 -> 33 ;
34 [label="dti <= 18.225\ngini = 0.478\nsamples = 14017\nvalue = [8477, 5540]"] ;
33 -> 34 ;
35 [label="term <= 0.5\ngini = 0.493\nsamples = 7805\nvalue = [4354, 3451]"] ;
34 -> 35 ;
36 [label="revol_util <= 42.65\ngini = 0.468\nsamples = 3079\nvalue = [1931, 1148]"] ;
35 -> 36 ;
37 [label="gini = 0.496\nsamples = 726\nvalue = [394, 332]"] ;
36 -> 37 ;
38 [label="gini = 0.453\nsamples = 2353\nvalue = [1537, 816]"] ;
36 -> 38 ;
39 [label="grade <= 0.5\ngini = 0.5\nsamples = 4726\nvalue = [2423, 2303]"] ;
35 -> 39 ;
40 [label="gini = 0.495\nsamples = 1333\nvalue = [603, 730]"] ;
39 -> 40 ;
41 [label="gini = 0.497\nsamples = 3393\nvalue = [1820, 1573]"] ;
39 -> 41 ;
42 [label="sub_grade <= 20.5\ngini = 0.446\nsamples = 6212\nvalue = [4123, 2089]"] ;
34 -> 42 ;
43 [label="dti <= 24.215\ngini = 0.464\nsamples = 4265\nvalue = [2706, 1559]"] ;
42 -> 43 ;
44 [label="gini = 0.478\nsamples = 2555\nvalue = [1544, 1011]"] ;
43 -> 44 ;
45 [label="gini = 0.436\nsamples = 1710\nvalue = [1162, 548]"] ;
43 -> 45 ;
46 [label="home_ownership <= 0.5\ngini = 0.396\nsamples = 1947\nvalue = [1417, 530]"] ;
42 -> 46 ;
47 [label="gini = 0.354\nsamples = 944\nvalue = [727, 217]"] ;
46 -> 47 ;
48 [label="gini = 0.429\nsamples = 1003\nvalue = [690, 313]"] ;
46 -> 48 ;
49 [label="term <= 0.5\ngini = 0.238\nsamples = 863\nvalue = [744, 119]"] ;
33 -> 49 ;
50 [label="dti <= 35.915\ngini = 0.125\nsamples = 314\nvalue = [293, 21]"] ;
49 -> 50 ;
51 [label="dti <= 16.485\ngini = 0.12\nsamples = 313\nvalue = [293, 20]"] ;
50 -> 51 ;
52 [label="gini = 0.181\nsamples = 159\nvalue = [143, 16]"] ;
51 -> 52 ;
53 [label="gini = 0.051\nsamples = 154\nvalue = [150, 4]"] ;
51 -> 53 ;
54 [label="gini = 0.0\nsamples = 1\nvalue = [0, 1]"] ;
50 -> 54 ;
55 [label="last_major_derog_none <= 0.5\ngini = 0.293\nsamples = 549\nvalue = [451, 98]"] ;
49 -> 55 ;
56 [label="purpose <= 4.0\ngini = 0.083\nsamples = 46\nvalue = [44, 2]"] ;
55 -> 56 ;
57 [label="gini = 0.0\nsamples = 33\nvalue = [33, 0]"] ;
56 -> 57 ;
58 [label="gini = 0.26\nsamples = 13\nvalue = [11, 2]"] ;
56 -> 58 ;
59 [label="dti <= 14.335\ngini = 0.309\nsamples = 503\nvalue = [407, 96]"] ;
55 -> 59 ;
60 [label="gini = 0.354\nsamples = 239\nvalue = [184, 55]"] ;
59 -> 60 ;
61 [label="gini = 0.262\nsamples = 264\nvalue = [223, 41]"] ;
59 -> 61 ;
62 [label="grade <= 5.5\ngini = 0.41\nsamples = 5514\nvalue = [1585, 3929]"] ;
0 -> 62 [labeldistance=2.5, labelangle=-45, headlabel="False"] ;
63 [label="total_rec_late_fee <= 14.83\ngini = 0.373\nsamples = 5078\nvalue = [1258, 3820]"] ;
62 -> 63 ;
64 [label="dti <= 16.435\ngini = 0.358\nsamples = 4936\nvalue = [1153, 3783]"] ;
63 -> 64 ;
65 [label="revol_util <= 31.45\ngini = 0.312\nsamples = 3232\nvalue = [625, 2607]"] ;
64 -> 65 ;
66 [label="home_ownership <= 1.5\ngini = 0.271\nsamples = 1785\nvalue = [289, 1496]"] ;
65 -> 66 ;
67 [label="gini = 0.324\nsamples = 783\nvalue = [159, 624]"] ;
66 -> 67 ;
68 [label="gini = 0.226\nsamples = 1002\nvalue = [130, 872]"] ;
66 -> 68 ;
69 [label="purpose <= 1.5\ngini = 0.357\nsamples = 1447\nvalue = [336, 1111]"] ;
65 -> 69 ;
70 [label="gini = 0.473\nsamples = 73\nvalue = [28, 45]"] ;
69 -> 70 ;
71 [label="gini = 0.348\nsamples = 1374\nvalue = [308, 1066]"] ;
69 -> 71 ;
72 [label="dti <= 23.705\ngini = 0.428\nsamples = 1704\nvalue = [528, 1176]"] ;
64 -> 72 ;
73 [label="revol_util <= 52.45\ngini = 0.403\nsamples = 1208\nvalue = [338, 870]"] ;
72 -> 73 ;
74 [label="gini = 0.372\nsamples = 811\nvalue = [200, 611]"] ;
73 -> 74 ;
75 [label="gini = 0.454\nsamples = 397\nvalue = [138, 259]"] ;
73 -> 75 ;
76 [label="revol_util <= 85.5\ngini = 0.473\nsamples = 496\nvalue = [190, 306]"] ;
72 -> 76 ;
77 [label="gini = 0.468\nsamples = 485\nvalue = [181, 304]"] ;
76 -> 77 ;
78 [label="gini = 0.298\nsamples = 11\nvalue = [9, 2]"] ;
76 -> 78 ;
79 [label="revol_util <= 0.55\ngini = 0.385\nsamples = 142\nvalue = [105, 37]"] ;
63 -> 79 ;
80 [label="gini = 0.0\nsamples = 3\nvalue = [0, 3]"] ;
79 -> 80 ;
81 [label="dti <= 5.485\ngini = 0.37\nsamples = 139\nvalue = [105, 34]"] ;
79 -> 81 ;
82 [label="dti <= 3.81\ngini = 0.492\nsamples = 32\nvalue = [18, 14]"] ;
81 -> 82 ;
83 [label="gini = 0.386\nsamples = 23\nvalue = [17, 6]"] ;
82 -> 83 ;
84 [label="gini = 0.198\nsamples = 9\nvalue = [1, 8]"] ;
82 -> 84 ;
85 [label="dti <= 24.435\ngini = 0.304\nsamples = 107\nvalue = [87, 20]"] ;
81 -> 85 ;
86 [label="gini = 0.266\nsamples = 95\nvalue = [80, 15]"] ;
85 -> 86 ;
87 [label="gini = 0.486\nsamples = 12\nvalue = [7, 5]"] ;
85 -> 87 ;
88 [label="purpose <= 2.5\ngini = 0.375\nsamples = 436\nvalue = [327, 109]"] ;
62 -> 88 ;
89 [label="emp_length_num <= 8.5\ngini = 0.268\nsamples = 113\nvalue = [95, 18]"] ;
88 -> 89 ;
90 [label="dti <= 6.785\ngini = 0.332\nsamples = 76\nvalue = [60, 16]"] ;
89 -> 90 ;
91 [label="emp_length_num <= 1.5\ngini = 0.469\nsamples = 16\nvalue = [10, 6]"] ;
90 -> 91 ;
92 [label="gini = 0.0\nsamples = 2\nvalue = [0, 2]"] ;
91 -> 92 ;
93 [label="gini = 0.408\nsamples = 14\nvalue = [10, 4]"] ;
91 -> 93 ;
94 [label="sub_grade <= 27.5\ngini = 0.278\nsamples = 60\nvalue = [50, 10]"] ;
90 -> 94 ;
95 [label="gini = 0.48\nsamples = 10\nvalue = [6, 4]"] ;
94 -> 95 ;
96 [label="gini = 0.211\nsamples = 50\nvalue = [44, 6]"] ;
94 -> 96 ;
97 [label="revol_util <= 57.3\ngini = 0.102\nsamples = 37\nvalue = [35, 2]"] ;
89 -> 97 ;
98 [label="sub_grade <= 33.0\ngini = 0.298\nsamples = 11\nvalue = [9, 2]"] ;
97 -> 98 ;
99 [label="gini = 0.198\nsamples = 9\nvalue = [8, 1]"] ;
98 -> 99 ;
100 [label="gini = 0.5\nsamples = 2\nvalue = [1, 1]"] ;
98 -> 100 ;
101 [label="gini = 0.0\nsamples = 26\nvalue = [26, 0]"] ;
97 -> 101 ;
102 [label="revol_util <= 98.4\ngini = 0.405\nsamples = 323\nvalue = [232, 91]"] ;
88 -> 102 ;
103 [label="revol_util <= 93.75\ngini = 0.415\nsamples = 310\nvalue = [219, 91]"] ;
102 -> 103 ;
104 [label="emp_length_num <= 5.5\ngini = 0.393\nsamples = 264\nvalue = [193, 71]"] ;
103 -> 104 ;
105 [label="gini = 0.449\nsamples = 97\nvalue = [64, 33]"] ;
104 -> 105 ;
106 [label="gini = 0.352\nsamples = 167\nvalue = [129, 38]"] ;
104 -> 106 ;
107 [label="revol_util <= 94.6\ngini = 0.491\nsamples = 46\nvalue = [26, 20]"] ;
103 -> 107 ;
108 [label="gini = 0.32\nsamples = 5\nvalue = [1, 4]"] ;
107 -> 108 ;
109 [label="gini = 0.476\nsamples = 41\nvalue = [25, 16]"] ;
107 -> 109 ;
110 [label="gini = 0.0\nsamples = 13\nvalue = [13, 0]"] ;
102 -> 110 ;
}